<?xml version="1.0"?>
<opencv_storage>
<cascade>
  <stageType>BOOST</stageType>
  <featureType>HAAR</featureType>
  <height>15</height>
  <width>15</width>
  <stageParams>
    <boostType>GAB</boostType>
    <minHitRate>9.9500000476837158e-01</minHitRate>
    <maxFalseAlarm>5.0000000000000000e-01</maxFalseAlarm>
    <weightTrimRate>9.4999998807907104e-01</weightTrimRate>
    <maxDepth>1</maxDepth>
    <maxWeakCount>100</maxWeakCount></stageParams>
  <featureParams>
    <maxCatCount>0</maxCatCount>
    <featSize>1</featSize>
    <mode>BASIC</mode></featureParams>
  <stageNum>11</stageNum>
  <stages>
    <!-- stage 0 -->
    <_>
      <maxWeakCount>4</maxWeakCount>
      <stageThreshold>-2.0572321414947510e+00</stageThreshold>
      <weakClassifiers>
        <_>
          <internalNodes>
            0 -1 26 2.1778553724288940e-01</internalNodes>
          <leafValues>
            -9.2878943681716919e-01 -1.0638298094272614e-01</leafValues></_>
        <_>
          <internalNodes>
            0 -1 13 -7.4357375502586365e-02</internalNodes>
          <leafValues>
            8.5592515766620636e-02 -8.8404607772827148e-01</leafValues></_>
        <_>
          <internalNodes>
            0 -1 40 2.7903284877538681e-02</internalNodes>
          <leafValues>
            -8.2014018297195435e-01 3.8811475038528442e-01</leafValues></_>
        <_>
          <internalNodes>
            0 -1 37 1.2487809173762798e-02</internalNodes>
          <leafValues>
            -4.5083343982696533e-01 5.7574361562728882e-01</leafValues></_></weakClassifiers></_>
    <!-- stage 1 -->
    <_>
      <maxWeakCount>3</maxWeakCount>
      <stageThreshold>-1.6621366739273071e+00</stageThreshold>
      <weakClassifiers>
        <_>
          <internalNodes>
            0 -1 25 3.8692390918731689e-01</internalNodes>
          <leafValues>
            -9.3491125106811523e-01 3.9682540297508240e-01</leafValues></_>
        <_>
          <internalNodes>
            0 -1 18 -1.3068327307701111e-01</internalNodes>
          <leafValues>
            3.9688175916671753e-01 -8.6082613468170166e-01</leafValues></_>
        <_>
          <internalNodes>
            0 -1 51 7.1413861587643623e-04</internalNodes>
          <leafValues>
            1.3360066711902618e-01 -9.4033330678939819e-01</leafValues></_></weakClassifiers></_>
    <!-- stage 2 -->
    <_>
      <maxWeakCount>4</maxWeakCount>
      <stageThreshold>-1.8422054052352905e+00</stageThreshold>
      <weakClassifiers>
        <_>
          <internalNodes>
            0 -1 2 -3.4257030487060547e-01</internalNodes>
          <leafValues>
            3.1818181276321411e-01 -9.6157735586166382e-01</leafValues></_>
        <_>
          <internalNodes>
            0 -1 0 -1.3332018256187439e-01</internalNodes>
          <leafValues>
            1.9452702999114990e-01 -8.5101556777954102e-01</leafValues></_>
        <_>
          <internalNodes>
            0 -1 8 -2.7586881071329117e-02</internalNodes>
          <leafValues>
            6.1905407905578613e-01 -5.7944667339324951e-01</leafValues></_>
        <_>
          <internalNodes>
            0 -1 31 -4.2356368154287338e-02</internalNodes>
          <leafValues>
            5.9796231985092163e-01 -4.9570837616920471e-01</leafValues></_></weakClassifiers></_>
    <!-- stage 3 -->
    <_>
      <maxWeakCount>5</maxWeakCount>
      <stageThreshold>-1.4904733896255493e+00</stageThreshold>
      <weakClassifiers>
        <_>
          <internalNodes>
            0 -1 36 2.2960387170314789e-01</internalNodes>
          <leafValues>
            -9.0248566865921021e-01 6.7741936445236206e-01</leafValues></_>
        <_>
          <internalNodes>
            0 -1 23 1.8381157517433167e-01</internalNodes>
          <leafValues>
            -6.9510543346405029e-01 7.1750605106353760e-01</leafValues></_>
        <_>
          <internalNodes>
            0 -1 19 3.3961984515190125e-01</internalNodes>
          <leafValues>
            -4.4337040185928345e-01 7.1171134710311890e-01</leafValues></_>
        <_>
          <internalNodes>
            0 -1 12 -3.1045044306665659e-03</internalNodes>
          <leafValues>
            -9.5398622751235962e-01 2.4907024204730988e-01</leafValues></_>
        <_>
          <internalNodes>
            0 -1 24 -6.3186336774379015e-05</internalNodes>
          <leafValues>
            3.0141785740852356e-01 -6.0167533159255981e-01</leafValues></_></weakClassifiers></_>
    <!-- stage 4 -->
    <_>
      <maxWeakCount>6</maxWeakCount>
      <stageThreshold>-1.9839755296707153e+00</stageThreshold>
      <weakClassifiers>
        <_>
          <internalNodes>
            0 -1 44 1.4562642574310303e-01</internalNodes>
          <leafValues>
            -8.9513820409774780e-01 5.7142859697341919e-01</leafValues></_>
        <_>
          <internalNodes>
            0 -1 11 -2.2958409786224365e-01</internalNodes>
          <leafValues>
            3.2586988806724548e-01 -8.0952197313308716e-01</leafValues></_>
        <_>
          <internalNodes>
            0 -1 27 -3.4355439245700836e-02</internalNodes>
          <leafValues>
            6.6550463438034058e-01 -4.7734624147415161e-01</leafValues></_>
        <_>
          <internalNodes>
            0 -1 47 -1.6804150072857738e-03</internalNodes>
          <leafValues>
            -9.0566891431808472e-01 2.5145351886749268e-01</leafValues></_>
        <_>
          <internalNodes>
            0 -1 21 -3.8700014352798462e-02</internalNodes>
          <leafValues>
            6.2760025262832642e-01 -3.7576037645339966e-01</leafValues></_>
        <_>
          <internalNodes>
            0 -1 1 -1.7045999411493540e-03</internalNodes>
          <leafValues>
            -7.8089040517807007e-01 3.2233783602714539e-01</leafValues></_></weakClassifiers></_>
    <!-- stage 5 -->
    <_>
      <maxWeakCount>6</maxWeakCount>
      <stageThreshold>-1.9160844087600708e+00</stageThreshold>
      <weakClassifiers>
        <_>
          <internalNodes>
            0 -1 5 -3.3626931905746460e-01</internalNodes>
          <leafValues>
            9.8039217293262482e-02 -9.0448343753814697e-01</leafValues></_>
        <_>
          <internalNodes>
            0 -1 34 2.9486751556396484e-01</internalNodes>
          <leafValues>
            -6.8382769823074341e-01 3.5085085034370422e-01</leafValues></_>
        <_>
          <internalNodes>
            0 -1 26 2.1740612387657166e-01</internalNodes>
          <leafValues>
            -4.0006583929061890e-01 5.7033997774124146e-01</leafValues></_>
        <_>
          <internalNodes>
            0 -1 52 7.0475437678396702e-03</internalNodes>
          <leafValues>
            2.0417383313179016e-01 -9.7051137685775757e-01</leafValues></_>
        <_>
          <internalNodes>
            0 -1 49 2.6211038857582025e-05</internalNodes>
          <leafValues>
            -4.3881732225418091e-01 4.2918381094932556e-01</leafValues></_>
        <_>
          <internalNodes>
            0 -1 46 -5.7633500546216965e-03</internalNodes>
          <leafValues>
            -6.5111750364303589e-01 3.0693608522415161e-01</leafValues></_></weakClassifiers></_>
    <!-- stage 6 -->
    <_>
      <maxWeakCount>5</maxWeakCount>
      <stageThreshold>-1.6964647769927979e+00</stageThreshold>
      <weakClassifiers>
        <_>
          <internalNodes>
            0 -1 35 1.2059178948402405e-01</internalNodes>
          <leafValues>
            -8.8593155145645142e-01 3.6000001430511475e-01</leafValues></_>
        <_>
          <internalNodes>
            0 -1 42 -2.0945899188518524e-02</internalNodes>
          <leafValues>
            3.6848345398902893e-01 -6.8052589893341064e-01</leafValues></_>
        <_>
          <internalNodes>
            0 -1 50 2.5319641281384975e-05</internalNodes>
          <leafValues>
            -6.8661558628082275e-01 2.9296746850013733e-01</leafValues></_>
        <_>
          <internalNodes>
            0 -1 13 -7.4455231428146362e-02</internalNodes>
          <leafValues>
            3.7925484776496887e-01 -6.6011017560958862e-01</leafValues></_>
        <_>
          <internalNodes>
            0 -1 43 3.5874079912900925e-03</internalNodes>
          <leafValues>
            2.3713542520999908e-01 -9.2109954357147217e-01</leafValues></_></weakClassifiers></_>
    <!-- stage 7 -->
    <_>
      <maxWeakCount>6</maxWeakCount>
      <stageThreshold>-1.7101916074752808e+00</stageThreshold>
      <weakClassifiers>
        <_>
          <internalNodes>
            0 -1 45 1.6480655968189240e-01</internalNodes>
          <leafValues>
            -8.7747406959533691e-01 5.0000000000000000e-01</leafValues></_>
        <_>
          <internalNodes>
            0 -1 17 -2.9705587029457092e-01</internalNodes>
          <leafValues>
            9.4791837036609650e-02 -7.2294837236404419e-01</leafValues></_>
        <_>
          <internalNodes>
            0 -1 16 -2.4085487239062786e-03</internalNodes>
          <leafValues>
            -7.8403109312057495e-01 1.5021412074565887e-01</leafValues></_>
        <_>
          <internalNodes>
            0 -1 38 -2.2271197289228439e-02</internalNodes>
          <leafValues>
            2.1831475198268890e-01 -7.2479224205017090e-01</leafValues></_>
        <_>
          <internalNodes>
            0 -1 28 2.5450559332966805e-03</internalNodes>
          <leafValues>
            1.9545982778072357e-01 -9.1967332363128662e-01</leafValues></_>
        <_>
          <internalNodes>
            0 -1 20 2.4940853109001182e-05</internalNodes>
          <leafValues>
            -5.5725288391113281e-01 3.0939480662345886e-01</leafValues></_></weakClassifiers></_>
    <!-- stage 8 -->
    <_>
      <maxWeakCount>7</maxWeakCount>
      <stageThreshold>-1.7822340726852417e+00</stageThreshold>
      <weakClassifiers>
        <_>
          <internalNodes>
            0 -1 6 4.2122069001197815e-01</internalNodes>
          <leafValues>
            -8.9910978078842163e-01 -2.1212121844291687e-01</leafValues></_>
        <_>
          <internalNodes>
            0 -1 7 -9.2373959720134735e-02</internalNodes>
          <leafValues>
            2.6674607396125793e-01 -6.2436097860336304e-01</leafValues></_>
        <_>
          <internalNodes>
            0 -1 15 -2.4940853109001182e-05</internalNodes>
          <leafValues>
            3.5763806104660034e-01 -4.9377718567848206e-01</leafValues></_>
        <_>
          <internalNodes>
            0 -1 32 -1.5505235642194748e-03</internalNodes>
          <leafValues>
            -8.4611630439758301e-01 2.0998904109001160e-01</leafValues></_>
        <_>
          <internalNodes>
            0 -1 55 1.7425795085728168e-03</internalNodes>
          <leafValues>
            1.6097791492938995e-01 -9.6316272020339966e-01</leafValues></_>
        <_>
          <internalNodes>
            0 -1 10 2.3663513362407684e-01</internalNodes>
          <leafValues>
            -4.4693845510482788e-01 3.7176799774169922e-01</leafValues></_>
        <_>
          <internalNodes>
            0 -1 3 2.2968629002571106e-01</internalNodes>
          <leafValues>
            -3.4272271394729614e-01 6.0072076320648193e-01</leafValues></_></weakClassifiers></_>
    <!-- stage 9 -->
    <_>
      <maxWeakCount>5</maxWeakCount>
      <stageThreshold>-1.4361886978149414e+00</stageThreshold>
      <weakClassifiers>
        <_>
          <internalNodes>
            0 -1 9 -2.3789818584918976e-01</internalNodes>
          <leafValues>
            7.6923079788684845e-02 -8.9210021495819092e-01</leafValues></_>
        <_>
          <internalNodes>
            0 -1 14 1.0892322659492493e-01</internalNodes>
          <leafValues>
            -6.0250884294509888e-01 6.2256234884262085e-01</leafValues></_>
        <_>
          <internalNodes>
            0 -1 48 2.4760838641668670e-05</internalNodes>
          <leafValues>
            -4.9791011214256287e-01 3.5738220810890198e-01</leafValues></_>
        <_>
          <internalNodes>
            0 -1 39 -2.5272231141570956e-05</internalNodes>
          <leafValues>
            3.9117902517318726e-01 -4.0179276466369629e-01</leafValues></_>
        <_>
          <internalNodes>
            0 -1 4 5.2788220345973969e-03</internalNodes>
          <leafValues>
            1.6515135765075684e-01 -9.4907307624816895e-01</leafValues></_></weakClassifiers></_>
    <!-- stage 10 -->
    <_>
      <maxWeakCount>7</maxWeakCount>
      <stageThreshold>-1.8099181652069092e+00</stageThreshold>
      <weakClassifiers>
        <_>
          <internalNodes>
            0 -1 29 1.3496863842010498e-01</internalNodes>
          <leafValues>
            -8.7969923019409180e-01 1.</leafValues></_>
        <_>
          <internalNodes>
            0 -1 30 9.5219448208808899e-02</internalNodes>
          <leafValues>
            -6.3736623525619507e-01 3.4520307183265686e-01</leafValues></_>
        <_>
          <internalNodes>
            0 -1 33 6.9685369729995728e-02</internalNodes>
          <leafValues>
            -3.6443042755126953e-01 7.9513287544250488e-01</leafValues></_>
        <_>
          <internalNodes>
            0 -1 41 2.6077139191329479e-03</internalNodes>
          <leafValues>
            2.3501461744308472e-01 -9.6914249658584595e-01</leafValues></_>
        <_>
          <internalNodes>
            0 -1 22 -6.8762019276618958e-02</internalNodes>
          <leafValues>
            3.3437535166740417e-01 -4.3920889496803284e-01</leafValues></_>
        <_>
          <internalNodes>
            0 -1 54 -2.8559009078890085e-03</internalNodes>
          <leafValues>
            -6.7163366079330444e-01 2.8386211395263672e-01</leafValues></_>
        <_>
          <internalNodes>
            0 -1 53 -7.6721236109733582e-02</internalNodes>
          <leafValues>
            -9.2508393526077271e-01 1.7382149398326874e-01</leafValues></_></weakClassifiers></_></stages>
  <features>
    <_>
      <rects>
        <_>
          0 0 15 8 -1.</_>
        <_>
          5 0 5 8 3.</_></rects>
      <tilted>0</tilted></_>
    <_>
      <rects>
        <_>
          0 2 3 10 -1.</_>
        <_>
          1 2 1 10 3.</_></rects>
      <tilted>0</tilted></_>
    <_>
      <rects>
        <_>
          0 2 15 13 -1.</_>
        <_>
          5 2 5 13 3.</_></rects>
      <tilted>0</tilted></_>
    <_>
      <rects>
        <_>
          0 2 14 10 -1.</_>
        <_>
          7 2 7 10 2.</_></rects>
      <tilted>0</tilted></_>
    <_>
      <rects>
        <_>
          0 3 2 6 -1.</_>
        <_>
          1 3 1 6 2.</_></rects>
      <tilted>0</tilted></_>
    <_>
      <rects>
        <_>
          0 3 10 10 -1.</_>
        <_>
          5 3 5 10 2.</_></rects>
      <tilted>0</tilted></_>
    <_>
      <rects>
        <_>
          0 3 15 9 -1.</_>
        <_>
          0 6 15 3 3.</_></rects>
      <tilted>0</tilted></_>
    <_>
      <rects>
        <_>
          0 6 15 2 -1.</_>
        <_>
          5 6 5 2 3.</_></rects>
      <tilted>0</tilted></_>
    <_>
      <rects>
        <_>
          0 11 12 1 -1.</_>
        <_>
          4 11 4 1 3.</_></rects>
      <tilted>0</tilted></_>
    <_>
      <rects>
        <_>
          0 11 12 4 -1.</_>
        <_>
          6 11 6 4 2.</_></rects>
      <tilted>0</tilted></_>
    <_>
      <rects>
        <_>
          1 0 7 15 -1.</_>
        <_>
          1 5 7 5 3.</_></rects>
      <tilted>0</tilted></_>
    <_>
      <rects>
        <_>
          1 1 12 14 -1.</_>
        <_>
          5 1 4 14 3.</_></rects>
      <tilted>0</tilted></_>
    <_>
      <rects>
        <_>
          1 2 2 10 -1.</_>
        <_>
          2 2 1 10 2.</_></rects>
      <tilted>0</tilted></_>
    <_>
      <rects>
        <_>
          1 2 12 9 -1.</_>
        <_>
          5 2 4 9 3.</_></rects>
      <tilted>0</tilted></_>
    <_>
      <rects>
        <_>
          1 3 8 6 -1.</_>
        <_>
          1 5 8 2 3.</_></rects>
      <tilted>0</tilted></_>
    <_>
      <rects>
        <_>
          1 6 2 4 -1.</_>
        <_>
          1 6 1 2 2.</_>
        <_>
          2 8 1 2 2.</_></rects>
      <tilted>0</tilted></_>
    <_>
      <rects>
        <_>
          1 12 10 3 -1.</_>
        <_>
          1 13 10 1 3.</_></rects>
      <tilted>0</tilted></_>
    <_>
      <rects>
        <_>
          2 1 12 14 -1.</_>
        <_>
          6 1 4 14 3.</_></rects>
      <tilted>0</tilted></_>
    <_>
      <rects>
        <_>
          2 2 12 10 -1.</_>
        <_>
          6 2 4 10 3.</_></rects>
      <tilted>0</tilted></_>
    <_>
      <rects>
        <_>
          2 2 11 12 -1.</_>
        <_>
          2 6 11 4 3.</_></rects>
      <tilted>0</tilted></_>
    <_>
      <rects>
        <_>
          2 6 3 2 -1.</_>
        <_>
          3 6 1 2 3.</_></rects>
      <tilted>0</tilted></_>
    <_>
      <rects>
        <_>
          2 6 10 6 -1.</_>
        <_>
          2 8 10 2 3.</_></rects>
      <tilted>0</tilted></_>
    <_>
      <rects>
        <_>
          3 0 12 8 -1.</_>
        <_>
          7 0 4 8 3.</_></rects>
      <tilted>0</tilted></_>
    <_>
      <rects>
        <_>
          3 1 7 9 -1.</_>
        <_>
          3 4 7 3 3.</_></rects>
      <tilted>0</tilted></_>
    <_>
      <rects>
        <_>
          3 2 3 9 -1.</_>
        <_>
          4 2 1 9 3.</_></rects>
      <tilted>0</tilted></_>
    <_>
      <rects>
        <_>
          3 2 11 12 -1.</_>
        <_>
          3 6 11 4 3.</_></rects>
      <tilted>0</tilted></_>
    <_>
      <rects>
        <_>
          3 3 9 9 -1.</_>
        <_>
          3 6 9 3 3.</_></rects>
      <tilted>0</tilted></_>
    <_>
      <rects>
        <_>
          4 3 5 6 -1.</_>
        <_>
          4 5 5 2 3.</_></rects>
      <tilted>0</tilted></_>
    <_>
      <rects>
        <_>
          4 12 5 3 -1.</_>
        <_>
          4 13 5 1 3.</_></rects>
      <tilted>0</tilted></_>
    <_>
      <rects>
        <_>
          5 4 5 6 -1.</_>
        <_>
          5 6 5 2 3.</_></rects>
      <tilted>0</tilted></_>
    <_>
      <rects>
        <_>
          5 6 4 6 -1.</_>
        <_>
          5 8 4 2 3.</_></rects>
      <tilted>0</tilted></_>
    <_>
      <rects>
        <_>
          5 8 9 6 -1.</_>
        <_>
          8 8 3 6 3.</_></rects>
      <tilted>0</tilted></_>
    <_>
      <rects>
        <_>
          5 12 5 3 -1.</_>
        <_>
          5 13 5 1 3.</_></rects>
      <tilted>0</tilted></_>
    <_>
      <rects>
        <_>
          6 1 2 9 -1.</_>
        <_>
          6 4 2 3 3.</_></rects>
      <tilted>0</tilted></_>
    <_>
      <rects>
        <_>
          6 2 8 13 -1.</_>
        <_>
          10 2 4 13 2.</_></rects>
      <tilted>0</tilted></_>
    <_>
      <rects>
        <_>
          6 3 4 6 -1.</_>
        <_>
          6 5 4 2 3.</_></rects>
      <tilted>0</tilted></_>
    <_>
      <rects>
        <_>
          6 4 5 9 -1.</_>
        <_>
          6 7 5 3 3.</_></rects>
      <tilted>0</tilted></_>
    <_>
      <rects>
        <_>
          6 5 6 4 -1.</_>
        <_>
          6 5 3 2 2.</_>
        <_>
          9 7 3 2 2.</_></rects>
      <tilted>0</tilted></_>
    <_>
      <rects>
        <_>
          6 5 4 10 -1.</_>
        <_>
          6 10 4 5 2.</_></rects>
      <tilted>0</tilted></_>
    <_>
      <rects>
        <_>
          6 11 2 4 -1.</_>
        <_>
          7 11 1 4 2.</_></rects>
      <tilted>0</tilted></_>
    <_>
      <rects>
        <_>
          7 0 2 15 -1.</_>
        <_>
          7 5 2 5 3.</_></rects>
      <tilted>0</tilted></_>
    <_>
      <rects>
        <_>
          7 12 4 3 -1.</_>
        <_>
          7 13 4 1 3.</_></rects>
      <tilted>0</tilted></_>
    <_>
      <rects>
        <_>
          8 3 2 6 -1.</_>
        <_>
          8 5 2 2 3.</_></rects>
      <tilted>0</tilted></_>
    <_>
      <rects>
        <_>
          9 0 6 2 -1.</_>
        <_>
          9 1 6 1 2.</_></rects>
      <tilted>0</tilted></_>
    <_>
      <rects>
        <_>
          9 1 4 13 -1.</_>
        <_>
          11 1 2 13 2.</_></rects>
      <tilted>0</tilted></_>
    <_>
      <rects>
        <_>
          9 6 6 6 -1.</_>
        <_>
          9 8 6 2 3.</_></rects>
      <tilted>0</tilted></_>
    <_>
      <rects>
        <_>
          9 11 6 4 -1.</_>
        <_>
          9 13 6 2 2.</_></rects>
      <tilted>0</tilted></_>
    <_>
      <rects>
        <_>
          11 0 4 4 -1.</_>
        <_>
          13 0 2 4 2.</_></rects>
      <tilted>0</tilted></_>
    <_>
      <rects>
        <_>
          11 5 2 2 -1.</_>
        <_>
          12 5 1 2 2.</_></rects>
      <tilted>0</tilted></_>
    <_>
      <rects>
        <_>
          11 6 2 4 -1.</_>
        <_>
          12 6 1 4 2.</_></rects>
      <tilted>0</tilted></_>
    <_>
      <rects>
        <_>
          11 9 4 2 -1.</_>
        <_>
          13 9 2 2 2.</_></rects>
      <tilted>0</tilted></_>
    <_>
      <rects>
        <_>
          11 11 4 4 -1.</_>
        <_>
          11 11 2 2 2.</_>
        <_>
          13 13 2 2 2.</_></rects>
      <tilted>0</tilted></_>
    <_>
      <rects>
        <_>
          12 0 2 9 -1.</_>
        <_>
          13 0 1 9 2.</_></rects>
      <tilted>0</tilted></_>
    <_>
      <rects>
        <_>
          12 5 2 10 -1.</_>
        <_>
          12 10 2 5 2.</_></rects>
      <tilted>0</tilted></_>
    <_>
      <rects>
        <_>
          13 1 2 14 -1.</_>
        <_>
          13 1 1 7 2.</_>
        <_>
          14 8 1 7 2.</_></rects>
      <tilted>0</tilted></_>
    <_>
      <rects>
        <_>
          13 11 2 3 -1.</_>
        <_>
          14 11 1 3 2.</_></rects>
      <tilted>0</tilted></_></features></cascade>
</opencv_storage>
