<?xml version="1.0"?>
<opencv_storage>
<stage6>
  <maxWeakCount>5</maxWeakCount>
  <stageThreshold>-1.6964647769927979e+00</stageThreshold>
  <weakClassifiers>
    <_>
      <internalNodes>
        0 -1 16718 1.2059178948402405e-01</internalNodes>
      <leafValues>
        -8.8593155145645142e-01 3.6000001430511475e-01</leafValues></_>
    <_>
      <internalNodes>
        0 -1 20025 -2.0945899188518524e-02</internalNodes>
      <leafValues>
        3.6848345398902893e-01 -6.8052589893341064e-01</leafValues></_>
    <_>
      <internalNodes>
        0 -1 23845 2.5319641281384975e-05</internalNodes>
      <leafValues>
        -6.8661558628082275e-01 2.9296746850013733e-01</leafValues></_>
    <_>
      <internalNodes>
        0 -1 4095 -7.4455231428146362e-02</internalNodes>
      <leafValues>
        3.7925484776496887e-01 -6.6011017560958862e-01</leafValues></_>
    <_>
      <internalNodes>
        0 -1 21037 3.5874079912900925e-03</internalNodes>
      <leafValues>
        2.3713542520999908e-01 -9.2109954357147217e-01</leafValues></_></weakClassifiers></stage6>
</opencv_storage>
